digraph Tree {
node [shape=box] ;
0 [label="petLen <= 2.45\ngini = 0.64\nsamples = 125\nvalue = [50, 50, 25]"] ;
1 [label="gini = 0.0\nsamples = 50\nvalue = [50, 0, 0]"] ;
0 -> 1 [labeldistance=2.5, labelangle=45, headlabel="True"] ;
2 [label="petWid <= 1.65\ngini = 0.4444\nsamples = 75\nvalue = [0, 50, 25]"] ;
0 -> 2 [labeldistance=2.5, labelangle=-45, headlabel="False"] ;
3 [label="petLen <= 4.75\ngini = 0.04\nsamples = 49\nvalue = [0, 48, 1]"] ;
2 -> 3 ;
4 [label="gini = 0.0\nsamples = 44\nvalue = [0, 44, 0]"] ;
3 -> 4 ;
5 [label="gini = 0.32\nsamples = 5\nvalue = [0, 4, 1]"] ;
3 -> 5 ;
6 [label="petLen <= 5.05\ngini = 0.142\nsamples = 26\nvalue = [0, 2, 24]"] ;
2 -> 6 ;
7 [label="gini = 0.4444\nsamples = 6\nvalue = [0, 2, 4]"] ;
6 -> 7 ;
8 [label="gini = 0.0\nsamples = 20\nvalue = [0, 0, 20]"] ;
6 -> 8 ;
}